digraph Tree {
node [shape=box, style="filled, rounded", color="black", fontname=helvetica] ;
edge [fontname=helvetica] ;
0 [label="cellsize <= 2.5\nentropy = 0.926\nsamples = 560\nvalue = [369, 191]", fillcolor="#f2c29f"] ;
1 [label="brnuclei <= 2.5\nentropy = 0.159\nsamples = 345\nvalue = [337, 8]", fillcolor="#e6843e"] ;
0 -> 1 [labeldistance=2.5, labelangle=45, headlabel="True"] ;
5 [label="entropy = 0.0\nsamples = 317\nvalue = [317, 0]", fillcolor="#e58139"] ;
1 -> 5 ;
6 [label="thickness <= 3.5\nentropy = 0.863\nsamples = 28\nvalue = [20, 8]", fillcolor="#efb388"] ;
1 -> 6 ;
9 [label="entropy = 0.0\nsamples = 16\nvalue = [16, 0]", fillcolor="#e58139"] ;
6 -> 9 ;
10 [label="chromatin <= 2.5\nentropy = 0.918\nsamples = 12\nvalue = [4, 8]", fillcolor="#9ccef2"] ;
6 -> 10 ;
19 [label="brnuclei <= 4.5\nentropy = 0.918\nsamples = 6\nvalue = [4, 2]", fillcolor="#f2c09c"] ;
10 -> 19 ;
27 [label="entropy = 0.0\nsamples = 3\nvalue = [3, 0]", fillcolor="#e58139"] ;
19 -> 27 ;
28 [label="entropy = 0.918\nsamples = 3\nvalue = [1, 2]", fillcolor="#9ccef2"] ;
19 -> 28 ;
20 [label="entropy = 0.0\nsamples = 6\nvalue = [0, 6]", fillcolor="#399de5"] ;
10 -> 20 ;
2 [label="cellsize <= 4.5\nentropy = 0.607\nsamples = 215\nvalue = [32, 183]", fillcolor="#5caeea"] ;
0 -> 2 [labeldistance=2.5, labelangle=-45, headlabel="False"] ;
3 [label="brnuclei <= 2.5\nentropy = 0.968\nsamples = 71\nvalue = [28, 43]", fillcolor="#baddf6"] ;
2 -> 3 ;
7 [label="epicellsize <= 3.5\nentropy = 0.65\nsamples = 24\nvalue = [20, 4]", fillcolor="#ea9a61"] ;
3 -> 7 ;
11 [label="entropy = 0.0\nsamples = 18\nvalue = [18, 0]", fillcolor="#e58139"] ;
7 -> 11 ;
12 [label="adhesion <= 2.5\nentropy = 0.918\nsamples = 6\nvalue = [2, 4]", fillcolor="#9ccef2"] ;
7 -> 12 ;
25 [label="entropy = 0.918\nsamples = 3\nvalue = [2, 1]", fillcolor="#f2c09c"] ;
12 -> 25 ;
26 [label="entropy = 0.0\nsamples = 3\nvalue = [0, 3]", fillcolor="#399de5"] ;
12 -> 26 ;
8 [label="cellshape <= 4.5\nentropy = 0.658\nsamples = 47\nvalue = [8, 39]", fillcolor="#62b1ea"] ;
3 -> 8 ;
15 [label="adhesion <= 5.5\nentropy = 0.863\nsamples = 28\nvalue = [8, 20]", fillcolor="#88c4ef"] ;
8 -> 15 ;
17 [label="entropy = 0.982\nsamples = 19\nvalue = [8, 11]", fillcolor="#c9e4f8"] ;
15 -> 17 ;
18 [label="entropy = 0.0\nsamples = 9\nvalue = [0, 9]", fillcolor="#399de5"] ;
15 -> 18 ;
16 [label="entropy = 0.0\nsamples = 19\nvalue = [0, 19]", fillcolor="#399de5"] ;
8 -> 16 ;
4 [label="brnuclei <= 0.5\nentropy = 0.183\nsamples = 144\nvalue = [4, 140]", fillcolor="#3fa0e6"] ;
2 -> 4 ;
13 [label="entropy = 0.918\nsamples = 3\nvalue = [2, 1]", fillcolor="#f2c09c"] ;
4 -> 13 ;
14 [label="chromatin <= 4.5\nentropy = 0.107\nsamples = 141\nvalue = [2, 139]", fillcolor="#3c9ee5"] ;
4 -> 14 ;
21 [label="thickness <= 6.5\nentropy = 0.31\nsamples = 36\nvalue = [2, 34]", fillcolor="#45a3e7"] ;
14 -> 21 ;
23 [label="entropy = 0.65\nsamples = 12\nvalue = [2, 10]", fillcolor="#61b1ea"] ;
21 -> 23 ;
24 [label="entropy = 0.0\nsamples = 24\nvalue = [0, 24]", fillcolor="#399de5"] ;
21 -> 24 ;
22 [label="entropy = 0.0\nsamples = 105\nvalue = [0, 105]", fillcolor="#399de5"] ;
14 -> 22 ;
}